287 16
90 -0.080591 -0.255051 -0.291228 -0.417176 0.144507 -0.301008 -0.011592 0.003111 0.155073 0.200626 0.095589 0.050294 -0.016593 -0.418747 -0.167070 -0.574433
189 -0.136620 -0.156922 -0.313255 -0.366932 0.111807 -0.283271 0.005575 0.057112 0.164083 0.240983 0.145844 0.084880 -0.055516 -0.447597 -0.178727 -0.569801
167 -0.108749 -0.204707 -0.257704 -0.373313 0.106625 -0.313315 -0.009278 0.007668 0.193907 0.255433 0.123995 0.076989 -0.076038 -0.443871 -0.128332 -0.587434
238 -0.124407 -0.174028 -0.341578 -0.357291 0.037912 -0.245623 -0.011559 -0.005443 0.194407 0.235139 0.145369 0.100602 -0.023623 -0.441161 -0.239195 -0.575280
47 -0.118196 -0.226454 -0.283214 -0.384966 0.080878 -0.284996 -0.042784 0.076980 0.156227 0.241757 0.112949 0.049178 -0.034376 -0.483835 -0.165754 -0.538501
41 -0.137295 -0.200789 -0.318733 -0.368458 0.117416 -0.309633 0.006098 0.019645 0.187886 0.212306 0.160414 0.062722 -0.077642 -0.421532 -0.157696 -0.566924
227 -0.124877 -0.206588 -0.316237 -0.371613 0.079465 -0.346409 -0.028819 0.047490 0.148813 0.256532 0.141351 0.059854 -0.061414 -0.410951 -0.179621 -0.554377
42 -0.144639 -0.165077 -0.281706 -0.359115 0.115401 -0.279331 -0.003453 0.061728 0.135252 0.242725 0.185805 0.062925 -0.105864 -0.409822 -0.179115 -0.600299
172 -0.137354 -0.168098 -0.324095 -0.392383 0.123804 -0.284454 0.033884 0.023533 0.171991 0.240438 0.175215 0.082564 -0.086180 -0.403095 -0.185661 -0.552861
119 -0.136689 -0.130146 -0.334932 -0.335633 0.113756 -0.280843 -0.017007 0.016033 0.138320 0.189185 0.149711 0.021643 -0.111177 -0.433055 -0.180956 -0.620308
95 -0.125701 -0.203195 -0.290149 -0.333629 0.084530 -0.328624 0.003982 0.075424 0.154992 0.216099 0.157922 0.009688 -0.057369 -0.450175 -0.193718 -0.567981
256 -0.117892 -0.204261 -0.314153 -0.386641 0.116669 -0.256064 0.031547 0.046001 0.126115 0.234187 0.175749 0.049907 -0.078313 -0.415593 -0.212564 -0.570908
72 -0.145116 -0.213330 -0.314319 -0.401169 0.115693 -0.263991 -0.001200 0.018000 0.148812 0.223406 0.142694 0.099421 -0.083131 -0.447503 -0.149050 -0.554403
196 -0.167289 -0.213710 -0.307039 -0.413119 0.084699 -0.329323 -0.009444 0.015172 0.135014 0.238412 0.122371 0.066755 -0.086843 -0.378980 -0.166466 -0.546429
260 -0.169495 -0.151429 -0.288469 -0.347283 0.077661 -0.311305 -0.040663 0.082184 0.182114 0.220814 0.174068 0.050397 -0.059568 -0.432529 -0.156297 -0.595604
51 -0.102786 -0.188068 -0.303360 -0.372781 0.093216 -0.256067 -0.027844 -0.003455 0.175585 0.250608 0.164704 0.080208 -0.070800 -0.444778 -0.217163 -0.580478
263 -0.102828 -0.235718 -0.276295 -0.381719 0.097606 -0.294780 0.045833 0.025590 0.162183 0.273807 0.207195 -0.003805 -0.065876 -0.444111 -0.179246 -0.533956
112 -0.108830 -0.225269 -0.221822 -0.384101 0.092792 -0.316079 0.025794 0.028087 0.169080 0.199786 0.175552 0.056957 -0.099317 -0.443923 -0.128190 -0.593454
225 -0.130908 -0.149731 -0.283968 -0.364814 0.060859 -0.267864 0.031694 -0.007153 0.169449 0.217533 0.155052 0.042607 -0.042105 -0.450501 -0.207050 -0.613007
201 -0.112063 -0.220292 -0.266799 -0.390521 0.080890 -0.277804 -0.011318 0.054045 0.187353 0.269844 0.189993 0.053587 -0.083011 -0.429143 -0.158625 -0.544804
110 -0.070355 -0.238447 -0.277733 -0.387976 0.101910 -0.307448 0.005899 0.037495 0.190433 0.254347 0.131932 0.028790 -0.052043 -0.403665 -0.154604 -0.599643
174 -0.113838 -0.205091 -0.232591 -0.381461 0.048711 -0.280231 -0.015844 0.024318 0.191642 0.235760 0.193784 0.064416 -0.083390 -0.414708 -0.141621 -0.616139
59 -0.133021 -0.212610 -0.244967 -0.375906 0.101032 -0.254324 0.028773 0.015113 0.151300 0.242590 0.095822 0.100967 -0.069618 -0.427661 -0.211965 -0.599840
100 -0.144397 -0.206352 -0.241200 -0.383874 0.175243 -0.293446 0.013958 0.033878 0.187483 0.241410 0.197978 0.057417 -0.051595 -0.464402 -0.157364 -0.533241
80 -0.128935 -0.211856 -0.298946 -0.349072 0.134495 -0.283554 0.035187 0.045423 0.164411 0.218895 0.164764 0.042205 -0.023715 -0.407052 -0.176519 -0.603458
75 -0.071294 -0.219506 -0.314928 -0.408049 0.071240 -0.259028 0.028857 0.008053 0.149130 0.180850 0.177352 0.051153 -0.088064 -0.427409 -0.177325 -0.587395
91 -0.155629 -0.206832 -0.245252 -0.333509 0.088971 -0.241982 -0.029589 0.002584 0.202622 0.264873 0.150799 0.054639 -0.043537 -0.427422 -0.176361 -0.619120
211 -0.129399 -0.159716 -0.315618 -0.394593 0.080055 -0.288253 -0.003189 0.029931 0.156185 0.227099 0.116816 0.058988 -0.079581 -0.439307 -0.191720 -0.578971
153 -0.120513 -0.213730 -0.242060 -0.381861 0.113314 -0.326703 0.037831 -0.004147 0.171184 0.211210 0.166675 0.074887 -0.065786 -0.410047 -0.142538 -0.594790
9 -0.107559 -0.171937 -0.353861 -0.343249 0.061550 -0.283510 -0.014943 0.050050 0.179115 0.191824 0.162650 0.089511 -0.062121 -0.443286 -0.185933 -0.584347
280 -0.159734 -0.215590 -0.257541 -0.356880 0.054464 -0.290842 0.009006 0.048893 0.187124 0.241568 0.174235 0.028054 -0.060110 -0.412693 -0.155544 -0.599045
215 -0.105643 -0.200286 -0.294269 -0.416456 0.072202 -0.292783 0.000461 0.010472 0.195426 0.229675 0.153235 0.066167 -0.120276 -0.396301 -0.171187 -0.570352
235 -0.101994 -0.163888 -0.319353 -0.374773 0.092393 -0.296629 0.030953 0.035986 0.143804 0.231629 0.123456 0.042887 -0.055263 -0.393154 -0.146351 -0.643576
150 -0.091628 -0.202182 -0.248312 -0.413711 0.116098 -0.251052 -0.015978 -0.014717 0.153637 0.225793 0.164187 0.032135 -0.076960 -0.429898 -0.179778 -0.596261
214 -0.127477 -0.156284 -0.285571 -0.347201 0.083140 -0.292927 -0.016327 0.085691 0.170506 0.238793 0.098730 0.036344 -0.070775 -0.440948 -0.197115 -0.613196
157 -0.123385 -0.154488 -0.265913 -0.354633 0.109729 -0.242837 0.015662 0.025190 0.144979 0.248619 0.264791 0.079856 -0.089073 -0.446524 -0.162381 -0.590004
84 -0.157003 -0.220623 -0.214290 -0.350608 0.145681 -0.268995 0.022769 0.014327 0.178303 0.266511 0.225923 0.046780 -0.066274 -0.470328 -0.201600 -0.549292
200 -0.128862 -0.229561 -0.228768 -0.389729 0.132560 -0.316125 -0.006302 0.043723 0.164860 0.224501 0.209789 0.004481 -0.039460 -0.430726 -0.105238 -0.583571
188 -0.071506 -0.202559 -0.220722 -0.405827 0.170077 -0.258243 0.075695 0.011358 0.236437 0.253863 0.219608 0.007695 -0.001412 -0.445327 -0.181929 -0.566782
273 -0.135623 -0.184073 -0.325809 -0.378597 0.060452 -0.327963 -0.008892 0.071549 0.138059 0.210330 0.098810 0.045843 -0.045197 -0.479005 -0.213827 -0.537212
52 -0.129610 -0.179838 -0.244305 -0.372532 0.051181 -0.319821 0.047045 0.046682 0.190847 0.217852 0.189877 0.055152 -0.046815 -0.437364 -0.189548 -0.590184
222 -0.130106 -0.235077 -0.265522 -0.345959 0.138902 -0.270508 0.018217 0.050540 0.159854 0.293029 0.172554 0.014374 -0.015881 -0.414731 -0.140487 -0.601419
15 -0.130248 -0.221421 -0.253183 -0.403452 0.115890 -0.263424 0.038636 -0.016151 0.186648 0.210405 0.213115 0.042980 -0.045705 -0.409156 -0.181881 -0.591846
183 -0.129014 -0.191737 -0.305542 -0.341779 0.108341 -0.307858 0.026011 0.061405 0.157820 0.216376 0.177352 0.042079 -0.074416 -0.433523 -0.192393 -0.571837
212 -0.135575 -0.189457 -0.262127 -0.353977 0.137260 -0.266444 0.043543 0.001159 0.168375 0.223193 0.209514 0.038273 -0.039705 -0.422706 -0.181950 -0.600329
132 -0.142937 -0.164806 -0.251908 -0.373593 0.097106 -0.251487 -0.009061 0.044219 0.156666 0.254967 0.173292 0.066261 -0.064673 -0.437460 -0.155554 -0.621311
135 -0.136771 -0.186221 -0.308313 -0.349594 0.066950 -0.331803 0.011143 0.092934 0.160066 0.220956 0.177676 0.057851 -0.073945 -0.423209 -0.159969 -0.579215
192 -0.148143 -0.179201 -0.350380 -0.357001 0.080260 -0.317579 -0.026272 0.054901 0.169697 0.174891 0.133658 0.065591 -0.083000 -0.435108 -0.199139 -0.570596
161 -0.099135 -0.219879 -0.216079 -0.372325 0.119850 -0.239942 0.013911 0.031523 0.178235 0.251465 0.178399 0.043851 -0.034945 -0.423497 -0.184738 -0.615133
11 -0.139149 -0.189809 -0.328881 -0.382228 0.068477 -0.305646 -0.061582 0.099224 0.146129 0.205910 0.094564 0.072009 -0.105333 -0.409909 -0.118229 -0.609308
63 -0.091384 -0.158270 -0.228156 -0.368954 0.129385 -0.316952 0.052774 0.035914 0.167538 0.291616 0.217659 -0.007565 -0.026396 -0.424315 -0.147800 -0.599980
275 -0.120084 -0.193157 -0.340889 -0.380628 0.081310 -0.324915 0.003158 0.018354 0.118678 0.232665 0.139897 0.078301 -0.094279 -0.387106 -0.157983 -0.592439
0 -0.074476 -0.231855 -0.267800 -0.377777 0.119010 -0.273736 0.000367 0.027561 0.185073 0.243230 0.266748 0.034737 -0.039790 -0.420840 -0.126599 -0.592570
197 -0.135378 -0.229213 -0.263587 -0.382826 0.074899 -0.323141 0.012295 0.017316 0.195730 0.263159 0.251519 0.024687 -0.030328 -0.427955 -0.158728 -0.550099
43 -0.114141 -0.169748 -0.281719 -0.372290 0.139585 -0.304355 0.034818 0.027720 0.177705 0.223444 0.228508 0.030384 -0.076384 -0.434129 -0.142941 -0.577585
77 -0.095743 -0.217621 -0.246888 -0.365940 0.097754 -0.280095 0.000130 0.059737 0.130190 0.311735 0.229760 0.058646 -0.087193 -0.409252 -0.145070 -0.580960
99 -0.125719 -0.202353 -0.251507 -0.370391 0.134313 -0.304463 -0.015771 -0.002635 0.202300 0.252869 0.194749 0.025195 -0.047914 -0.417285 -0.114759 -0.583730
162 -0.115708 -0.200236 -0.344264 -0.361917 0.083367 -0.280931 -0.011543 0.044540 0.174209 0.233204 0.100304 0.046717 -0.078126 -0.453083 -0.163618 -0.565417
241 -0.106693 -0.217376 -0.243412 -0.382520 0.095115 -0.291688 0.054661 0.019631 0.175315 0.248202 0.210896 0.027996 -0.045344 -0.443547 -0.204330 -0.562852
105 -0.116906 -0.246884 -0.222882 -0.400741 0.104245 -0.292806 0.039049 0.073809 0.193923 0.284775 0.249275 0.067650 -0.048777 -0.399667 -0.173381 -0.546222
27 -0.106332 -0.226774 -0.313247 -0.402835 0.114873 -0.236875 0.000718 0.095216 0.124220 0.228443 0.159167 0.011595 -0.077014 -0.399013 -0.180114 -0.603659
21 -0.157978 -0.159898 -0.321128 -0.435339 0.042103 -0.281641 -0.008899 0.047791 0.120856 0.257355 0.096531 0.044305 -0.061924 -0.447345 -0.220292 -0.536555
12 -0.121093 -0.202300 -0.277405 -0.391473 0.080897 -0.279028 0.005389 -0.031026 0.156374 0.255822 0.211188 0.065553 -0.055570 -0.415056 -0.187623 -0.583033
71 -0.109990 -0.170256 -0.311903 -0.364186 0.082242 -0.273804 -0.053942 -0.025667 0.181045 0.243949 0.149518 0.111511 -0.058509 -0.418789 -0.150493 -0.606983
55 -0.078537 -0.218739 -0.232998 -0.390550 0.086968 -0.256870 0.057012 0.008482 0.199201 0.274655 0.185686 0.048761 -0.060347 -0.416272 -0.189602 -0.598772
149 -0.145380 -0.208530 -0.358287 -0.382818 0.109943 -0.249504 -0.046093 0.076760 0.166443 0.228920 0.095091 0.113328 -0.081560 -0.397125 -0.182282 -0.569084
125 -0.094826 -0.217708 -0.286266 -0.360675 0.134788 -0.304214 0.000814 0.031469 0.147673 0.254189 0.209871 -0.004382 -0.069126 -0.373421 -0.200061 -0.586987
121 -0.086301 -0.168590 -0.336259 -0.364310 0.110512 -0.279759 0.031137 0.009877 0.185360 0.185514 0.106005 0.056672 -0.072254 -0.425724 -0.209334 -0.612769
93 -0.089074 -0.179561 -0.191400 -0.375037 0.114257 -0.249673 0.018039 0.065982 0.154975 0.288855 0.217900 0.049796 -0.097786 -0.474531 -0.154383 -0.590520
142 -0.103449 -0.234455 -0.275519 -0.419398 0.093352 -0.249001 0.036217 0.054000 0.132569 0.242214 0.154091 0.064224 -0.036786 -0.419580 -0.159993 -0.583989
178 -0.099210 -0.162016 -0.325671 -0.363617 0.124675 -0.275903 -0.018080 0.041747 0.200365 0.230816 0.128688 0.101251 -0.060236 -0.441380 -0.179568 -0.576753
92 -0.148183 -0.204855 -0.254676 -0.382501 0.116224 -0.266467 0.035773 -0.016073 0.189076 0.271552 0.208774 0.038363 -0.065386 -0.427448 -0.105023 -0.569512
277 -0.143832 -0.180357 -0.342527 -0.392069 0.096016 -0.298075 -0.031279 0.029136 0.159944 0.229732 0.137356 0.041241 -0.091576 -0.416035 -0.188682 -0.565037
122 -0.136589 -0.195640 -0.332529 -0.362347 0.058663 -0.293159 -0.039659 0.062459 0.152628 0.194029 0.143056 0.053149 -0.066748 -0.421193 -0.174041 -0.595957
194 -0.115865 -0.207491 -0.262974 -0.376651 0.086714 -0.263599 -0.010191 0.021365 0.166418 0.219410 0.157465 0.058959 -0.042059 -0.457363 -0.150619 -0.589074
164 -0.081335 -0.194530 -0.315581 -0.419378 0.076558 -0.317106 -0.029182 0.075309 0.122925 0.197485 0.090595 0.112363 -0.062132 -0.422248 -0.181008 -0.574231
226 -0.120769 -0.147616 -0.307686 -0.335336 0.054841 -0.336325 0.003148 0.065288 0.155688 0.226635 0.117307 0.018299 -0.051987 -0.464998 -0.151438 -0.595917
209 -0.156988 -0.186646 -0.321038 -0.405771 0.057279 -0.290685 0.010959 0.040773 0.171625 0.218560 0.097535 0.095013 -0.126769 -0.423724 -0.138877 -0.577982
116 -0.161331 -0.166611 -0.284271 -0.363520 0.136428 -0.257254 0.017412 0.004234 0.180165 0.203002 0.129011 0.070921 -0.092700 -0.449226 -0.228742 -0.577412
249 -0.116609 -0.181995 -0.315726 -0.403718 0.081942 -0.272304 -0.023636 0.053806 0.120642 0.222980 0.116379 0.029821 -0.098919 -0.457967 -0.193734 -0.565066
79 -0.093400 -0.191071 -0.268369 -0.405501 0.135884 -0.299362 0.049277 0.059319 0.134818 0.262948 0.166982 0.047808 -0.048288 -0.433795 -0.209499 -0.562108
118 -0.105655 -0.229202 -0.202552 -0.371612 0.123594 -0.294830 0.076717 0.016624 0.201492 0.254897 0.173187 0.054509 -0.017507 -0.414498 -0.192046 -0.589021
37 -0.138413 -0.201054 -0.219577 -0.343106 0.092272 -0.252231 0.000004 0.013415 0.192275 0.257571 0.160689 0.065089 -0.038056 -0.484746 -0.172470 -0.582012
124 -0.145314 -0.242616 -0.267862 -0.349999 0.110092 -0.311686 0.021279 0.024165 0.204449 0.227843 0.218900 0.053441 -0.030534 -0.404755 -0.172721 -0.571285
145 -0.132125 -0.218892 -0.296654 -0.381359 0.097204 -0.266439 -0.024357 0.052154 0.158959 0.205397 0.135131 0.000620 -0.073382 -0.418264 -0.170712 -0.600966
165 -0.120417 -0.195993 -0.252652 -0.355078 0.127475 -0.273255 0.037096 0.045106 0.166949 0.269206 0.222626 0.039580 -0.020858 -0.440109 -0.212588 -0.567737
204 -0.145114 -0.170171 -0.250016 -0.343535 0.113935 -0.277951 0.023974 0.036292 0.225249 0.271430 0.182208 0.050026 -0.048852 -0.425836 -0.211311 -0.581267
207 -0.134036 -0.217089 -0.268675 -0.355649 0.142856 -0.319871 0.026070 0.031350 0.221556 0.275047 0.182703 0.052193 -0.053255 -0.414679 -0.127838 -0.558281
104 -0.095753 -0.230158 -0.291149 -0.403806 0.088549 -0.298174 0.010741 0.061770 0.165771 0.182947 0.157678 0.048289 -0.105438 -0.412801 -0.157488 -0.582508
232 -0.112707 -0.167566 -0.328704 -0.424179 0.061160 -0.317523 0.042302 0.015698 0.141143 0.196236 0.160004 0.102465 -0.101411 -0.400342 -0.150752 -0.565052
126 -0.137320 -0.199397 -0.324266 -0.404704 0.080374 -0.266393 -0.039761 0.061627 0.160467 0.255763 0.151262 0.075779 -0.048948 -0.405836 -0.125821 -0.575622
103 -0.108816 -0.228856 -0.229836 -0.397755 0.100425 -0.284844 0.003877 0.056872 0.171618 0.235237 0.140333 0.015612 -0.075781 -0.453117 -0.226516 -0.555634
65 -0.095524 -0.195477 -0.282006 -0.375666 0.091137 -0.323380 0.040123 0.037119 0.192864 0.210941 0.216775 0.029323 -0.016553 -0.415670 -0.198298 -0.566369
228 -0.114595 -0.168494 -0.240091 -0.318887 0.099773 -0.312366 0.011506 0.034352 0.199686 0.231561 0.204138 0.012822 -0.056142 -0.447612 -0.176782 -0.603714
186 -0.143001 -0.240501 -0.307527 -0.355302 0.107816 -0.320430 -0.012270 -0.005139 0.133893 0.219288 0.228530 0.030599 -0.066184 -0.407532 -0.122751 -0.579608
175 -0.133755 -0.182095 -0.290534 -0.368409 0.088457 -0.319340 0.008773 0.034962 0.186244 0.246300 0.164468 0.078551 -0.048942 -0.404743 -0.160258 -0.581850
5 -0.127086 -0.239769 -0.274184 -0.351806 0.113506 -0.329526 0.071513 -0.011544 0.217876 0.229950 0.214698 0.070385 -0.076182 -0.417701 -0.159794 -0.564242
64 -0.118282 -0.196948 -0.241656 -0.389804 0.100348 -0.272670 0.006370 0.047486 0.184309 0.261316 0.195026 0.042325 -0.017511 -0.455836 -0.191551 -0.561035
33 -0.105948 -0.189334 -0.310595 -0.344437 0.098635 -0.327747 0.003108 0.087990 0.158805 0.203396 0.103794 0.075262 -0.071394 -0.489692 -0.189094 -0.555136
29 -0.136739 -0.167756 -0.290903 -0.381058 0.088986 -0.321888 -0.005895 0.041904 0.176833 0.250723 0.131543 0.107327 -0.084448 -0.433496 -0.183115 -0.560521
187 -0.147810 -0.200925 -0.294398 -0.360883 0.084563 -0.286342 0.023076 0.030901 0.150305 0.256281 0.154579 0.056694 -0.093813 -0.402260 -0.122094 -0.608066
62 -0.079705 -0.189870 -0.337778 -0.411257 0.054206 -0.289347 -0.036985 0.061167 0.177722 0.184454 0.159826 0.077683 -0.068319 -0.413356 -0.179411 -0.559525
28 -0.149543 -0.228079 -0.255753 -0.393719 0.103362 -0.269207 0.022749 0.038861 0.130387 0.215219 0.208186 0.095935 -0.094799 -0.412956 -0.188737 -0.591202
101 -0.143780 -0.213580 -0.295319 -0.359049 0.126637 -0.296471 -0.027974 0.006317 0.181118 0.197641 0.148030 0.048572 -0.030718 -0.395883 -0.190103 -0.613469
129 -0.136688 -0.244198 -0.209955 -0.387276 0.154594 -0.294328 0.014740 0.034688 0.219565 0.261837 0.188670 0.013480 -0.038955 -0.437106 -0.112362 -0.572544
229 -0.065184 -0.232842 -0.263822 -0.367648 0.098987 -0.304552 0.001178 0.017465 0.142833 0.220889 0.229921 0.038699 -0.072927 -0.426983 -0.173822 -0.585028
57 -0.061302 -0.185667 -0.279921 -0.402796 0.084143 -0.246685 -0.005842 0.041131 0.160361 0.250677 0.153217 0.077589 -0.060767 -0.424091 -0.143915 -0.604144
58 -0.091495 -0.190575 -0.300908 -0.411409 0.045108 -0.275730 0.005090 0.059721 0.161138 0.238799 0.165256 0.054548 -0.061150 -0.409975 -0.169160 -0.581981
78 -0.126657 -0.199980 -0.284111 -0.350452 0.096187 -0.300888 0.007680 0.023321 0.192053 0.219303 0.103424 0.042702 -0.084209 -0.456527 -0.121867 -0.582954
286 -0.131146 -0.220225 -0.272171 -0.398944 0.076962 -0.346426 0.025777 0.011097 0.183819 0.235072 0.159896 -0.001647 -0.051137 -0.385026 -0.161228 -0.576972
171 -0.150958 -0.157478 -0.333921 -0.375777 0.052506 -0.285132 0.015075 0.046273 0.158238 0.196909 0.162000 0.092809 -0.089296 -0.428716 -0.190582 -0.585110
276 -0.156950 -0.127730 -0.294522 -0.395509 0.112652 -0.323248 0.013427 0.029315 0.185279 0.192062 0.188069 0.037069 -0.067739 -0.411440 -0.175205 -0.590314
123 -0.076988 -0.171377 -0.239336 -0.384841 0.119244 -0.279995 0.007685 0.038831 0.195367 0.211646 0.196972 0.034631 -0.046439 -0.417045 -0.178940 -0.615627
199 -0.140893 -0.197036 -0.273720 -0.368763 0.066814 -0.301763 0.012171 0.064631 0.160504 0.262611 0.155975 0.057649 -0.120557 -0.405398 -0.183763 -0.572617
253 -0.083285 -0.200231 -0.281925 -0.345866 0.106118 -0.267819 0.033477 0.023462 0.192232 0.248805 0.168420 0.075043 -0.091217 -0.443813 -0.197895 -0.587322
217 -0.129225 -0.159879 -0.349928 -0.377211 0.085888 -0.269724 -0.029083 0.007761 0.135584 0.247798 0.062875 0.065191 -0.068712 -0.413289 -0.156268 -0.602989
239 -0.116335 -0.194115 -0.252639 -0.400410 0.059272 -0.301234 -0.000220 0.014226 0.137963 0.214049 0.131054 0.030137 -0.060786 -0.427590 -0.160210 -0.615261
50 -0.137549 -0.234438 -0.269068 -0.371662 0.082912 -0.296619 0.067857 0.025008 0.170913 0.267095 0.193456 0.031092 -0.060365 -0.426010 -0.184408 -0.557370
285 -0.092851 -0.186987 -0.289236 -0.397847 0.031879 -0.265350 0.010164 0.052794 0.156526 0.255403 0.161674 0.066075 -0.091957 -0.448319 -0.159639 -0.576369
144 -0.106307 -0.186529 -0.304193 -0.364110 0.122833 -0.313808 0.024359 0.062943 0.133208 0.273067 0.147587 0.081994 -0.060691 -0.451708 -0.138373 -0.551718
166 -0.115432 -0.202857 -0.249929 -0.403620 0.071881 -0.297221 0.047848 -0.045575 0.191251 0.221422 0.185910 -0.003786 -0.023851 -0.474948 -0.118879 -0.574945
198 -0.088684 -0.191353 -0.299942 -0.399265 0.024479 -0.253145 0.001993 0.024406 0.178853 0.243082 0.151755 0.065421 -0.070577 -0.402022 -0.171843 -0.622766
108 -0.121325 -0.169882 -0.248001 -0.396702 0.138125 -0.253555 0.020096 0.012443 0.178817 0.289188 0.203096 0.021735 -0.063916 -0.442895 -0.146374 -0.565476
19 -0.103754 -0.206868 -0.303935 -0.419700 0.054928 -0.278200 -0.031794 0.034455 0.190064 0.218154 0.080769 0.080333 -0.060112 -0.407361 -0.218521 -0.583907
223 -0.094477 -0.175840 -0.252846 -0.348159 0.076410 -0.299341 0.050754 0.025510 0.143170 0.242100 0.191857 0.027557 -0.076635 -0.463910 -0.163123 -0.612914
151 -0.101005 -0.237158 -0.235748 -0.394762 0.144506 -0.245843 0.002021 0.010953 0.200570 0.295058 0.175691 0.057349 -0.080956 -0.411575 -0.172463 -0.568864
88 -0.138789 -0.242910 -0.262676 -0.379088 0.117678 -0.280784 0.008035 0.017436 0.166401 0.240081 0.221878 0.073035 -0.080848 -0.397424 -0.119676 -0.600004
206 -0.098655 -0.200675 -0.267997 -0.425788 0.039900 -0.303959 -0.024227 0.056052 0.142683 0.223670 0.103472 0.095861 -0.105760 -0.431440 -0.168786 -0.577647
170 -0.120015 -0.189516 -0.314947 -0.389814 0.061743 -0.267178 0.023555 0.029404 0.136424 0.215068 0.153376 0.032881 -0.037801 -0.432279 -0.154554 -0.597392
219 -0.072733 -0.189777 -0.268028 -0.381514 0.116516 -0.256897 0.037981 0.014646 0.178095 0.212856 0.185665 0.046879 -0.034146 -0.423733 -0.177319 -0.599565
243 -0.117019 -0.218222 -0.271733 -0.419614 0.089246 -0.312715 -0.030355 0.005016 0.148255 0.230249 0.149821 0.044045 -0.064207 -0.412428 -0.141482 -0.593162
61 -0.127698 -0.230029 -0.256540 -0.408229 0.079920 -0.288136 0.014336 0.039705 0.165890 0.261725 0.143278 0.037376 -0.076659 -0.404264 -0.155568 -0.588321
20 -0.109164 -0.186825 -0.299736 -0.363600 0.071085 -0.301089 0.032710 0.033243 0.138828 0.222769 0.110341 0.032982 -0.054241 -0.439127 -0.184154 -0.599630
246 -0.134739 -0.167352 -0.233889 -0.326610 0.115704 -0.315248 0.007087 0.032060 0.127944 0.235967 0.229235 0.072531 -0.032394 -0.463625 -0.152544 -0.607909
210 -0.135009 -0.181765 -0.306771 -0.370760 0.107011 -0.264941 -0.005494 0.064158 0.139824 0.247228 0.150094 0.066349 -0.080540 -0.403617 -0.198561 -0.597978
23 -0.107589 -0.195588 -0.332131 -0.366171 0.082164 -0.291877 -0.007976 0.065483 0.172188 0.194781 0.136702 0.073891 -0.075397 -0.456045 -0.201462 -0.560444
282 -0.120614 -0.207526 -0.313314 -0.358115 0.095210 -0.309304 -0.024725 0.028810 0.172008 0.253788 0.144740 0.069063 -0.112847 -0.390182 -0.122687 -0.595661
237 -0.085088 -0.207927 -0.251400 -0.345177 0.131767 -0.306743 0.071715 0.033698 0.159329 0.218369 0.174172 0.073833 -0.110224 -0.453722 -0.144531 -0.584822
268 -0.110522 -0.178522 -0.310750 -0.367818 0.105656 -0.275787 -0.004668 -0.000965 0.160138 0.230570 0.162160 0.062590 -0.071690 -0.428867 -0.162542 -0.597412
22 -0.100352 -0.185584 -0.319424 -0.369432 0.080239 -0.334921 -0.015584 0.037787 0.111797 0.183139 0.112910 0.048287 -0.043506 -0.473819 -0.157374 -0.588729
169 -0.095233 -0.200899 -0.268052 -0.348609 0.103859 -0.276603 -0.005914 0.090444 0.220556 0.242318 0.168089 0.042856 -0.065250 -0.431700 -0.150029 -0.585985
233 -0.121781 -0.243685 -0.258798 -0.370919 0.106758 -0.293560 -0.007685 0.015886 0.146572 0.200942 0.139433 0.079922 -0.072231 -0.440523 -0.128493 -0.593958
44 -0.079402 -0.232358 -0.277175 -0.378527 0.121408 -0.298760 0.022297 0.010502 0.219376 0.263412 0.186956 0.040123 -0.059887 -0.410010 -0.131316 -0.579441
146 -0.182368 -0.208929 -0.315818 -0.392094 0.071817 -0.312676 -0.025654 0.064369 0.163753 0.220438 0.076922 0.071734 -0.121024 -0.401128 -0.146509 -0.572435
155 -0.140685 -0.234789 -0.338667 -0.372222 0.074986 -0.315262 -0.015991 0.046530 0.151137 0.222915 0.077803 0.038860 -0.040461 -0.420285 -0.111947 -0.586124
87 -0.123966 -0.209758 -0.311933 -0.397902 0.082057 -0.269986 -0.034641 0.079705 0.176759 0.212976 0.162628 0.092004 -0.083262 -0.418034 -0.191012 -0.571096
202 -0.111349 -0.147054 -0.314348 -0.320867 0.091982 -0.300098 0.005735 0.107734 0.187953 0.192561 0.135625 0.063855 -0.024907 -0.473294 -0.148943 -0.608056
102 -0.132738 -0.219413 -0.264274 -0.397098 0.074136 -0.296969 -0.036287 0.061747 0.185302 0.212145 0.069952 0.046449 -0.097442 -0.458961 -0.190463 -0.566093
32 -0.156784 -0.206763 -0.321928 -0.381333 0.091914 -0.274890 -0.007486 0.031100 0.133975 0.241090 0.115173 0.073809 -0.085743 -0.439287 -0.161284 -0.555650
115 -0.101965 -0.211524 -0.248090 -0.367337 0.111223 -0.320837 -0.006057 0.014526 0.158180 0.219263 0.155833 0.020931 -0.069152 -0.449277 -0.179096 -0.583230
182 -0.084839 -0.223075 -0.270568 -0.410091 0.084057 -0.309549 0.046028 0.023806 0.148384 0.243604 0.124200 0.038917 -0.099913 -0.410625 -0.124224 -0.599782
154 -0.083040 -0.163916 -0.251697 -0.388045 0.095557 -0.295941 0.014776 0.102757 0.183670 0.292853 0.192542 0.041281 -0.050405 -0.414848 -0.202893 -0.562292
128 -0.109738 -0.180735 -0.319429 -0.383686 0.083293 -0.296798 0.038107 0.036241 0.168451 0.194175 0.078400 0.051617 -0.106273 -0.457976 -0.182964 -0.565509
1 -0.153027 -0.210504 -0.243208 -0.387219 0.139215 -0.310203 0.014062 0.055238 0.180117 0.200004 0.107696 0.055628 -0.032257 -0.456298 -0.192819 -0.563631
159 -0.113896 -0.175031 -0.266835 -0.363472 0.094751 -0.337761 0.029220 0.002811 0.190856 0.234599 0.178659 0.041331 -0.053594 -0.401004 -0.198300 -0.579849
31 -0.097915 -0.185799 -0.254714 -0.346640 0.100559 -0.323835 0.020139 0.018221 0.138686 0.235104 0.171443 0.091705 -0.035636 -0.424419 -0.171576 -0.603543
13 -0.100028 -0.223294 -0.240277 -0.392313 0.087292 -0.309577 0.017021 0.008103 0.142680 0.247329 0.149569 0.046641 -0.065491 -0.466335 -0.103836 -0.578017
257 -0.120535 -0.207163 -0.295488 -0.364656 0.094097 -0.289544 0.009054 0.043386 0.144309 0.210977 0.105117 0.096975 -0.106620 -0.418382 -0.193714 -0.605795
18 -0.069582 -0.215718 -0.271996 -0.399686 0.141900 -0.258684 0.009822 0.053285 0.191925 0.275918 0.196370 0.042035 -0.024282 -0.396610 -0.162867 -0.578463
97 -0.130507 -0.145609 -0.263107 -0.356928 0.151794 -0.296647 0.025646 0.017436 0.188676 0.253940 0.200562 0.023197 -0.018946 -0.430039 -0.172162 -0.588218
94 -0.127307 -0.218138 -0.337140 -0.383206 0.082159 -0.305892 -0.015251 0.076684 0.119852 0.199080 0.128996 0.061000 -0.087981 -0.442642 -0.207843 -0.540502
26 -0.129351 -0.210803 -0.307970 -0.403364 0.124149 -0.301903 0.015017 0.015143 0.124389 0.215058 0.109185 0.050791 -0.061336 -0.422841 -0.182680 -0.553868
14 -0.123491 -0.209581 -0.256307 -0.395376 0.119042 -0.275274 -0.000028 0.002788 0.148023 0.266289 0.136477 0.062636 -0.090806 -0.427051 -0.161363 -0.578171
254 -0.118185 -0.216473 -0.305140 -0.412511 0.070596 -0.289592 -0.003654 0.046802 0.164097 0.261199 0.156305 0.083802 -0.068255 -0.436720 -0.152052 -0.534196
218 -0.131439 -0.214187 -0.276463 -0.353301 0.093279 -0.277030 -0.023357 0.070208 0.164338 0.239234 0.195240 0.043269 -0.090945 -0.416639 -0.185472 -0.597844
245 -0.091578 -0.165342 -0.354777 -0.377629 0.092215 -0.289382 -0.032213 -0.005858 0.165324 0.243833 0.072540 0.045812 -0.071246 -0.423540 -0.163563 -0.603653
248 -0.141924 -0.196835 -0.240251 -0.404860 0.127565 -0.283097 0.045078 0.001791 0.218386 0.267166 0.163029 0.100900 -0.030043 -0.453220 -0.118670 -0.553022
2 -0.090067 -0.194875 -0.318071 -0.408435 0.039934 -0.294206 -0.015437 0.050985 0.111177 0.190967 0.080894 0.062518 -0.075813 -0.455107 -0.165257 -0.581626
138 -0.129957 -0.179193 -0.351651 -0.396801 0.042450 -0.309675 -0.025755 0.009462 0.160966 0.184418 0.147702 0.078573 -0.097078 -0.402397 -0.153830 -0.581284
30 -0.121044 -0.238118 -0.309708 -0.335979 0.063802 -0.255952 -0.001245 0.022480 0.164252 0.239349 0.114742 0.059764 -0.091578 -0.417594 -0.175009 -0.614268
24 -0.111553 -0.181866 -0.241089 -0.341841 0.086649 -0.322479 0.036719 0.019184 0.186221 0.218773 0.135042 0.026512 -0.031566 -0.452270 -0.176122 -0.609428
158 -0.121074 -0.173306 -0.341840 -0.399254 0.030581 -0.312660 -0.001095 0.082496 0.132488 0.174593 0.121075 0.037251 -0.061887 -0.450862 -0.179455 -0.569095
137 -0.129136 -0.191712 -0.282301 -0.399747 0.119250 -0.248871 -0.007387 0.088677 0.173062 0.236286 0.117195 0.051790 -0.071329 -0.435267 -0.184870 -0.576668
177 -0.136479 -0.207623 -0.285593 -0.395151 0.111373 -0.307674 0.005823 0.037090 0.189384 0.212465 0.123088 0.039570 -0.051504 -0.439257 -0.177232 -0.551731
107 -0.061834 -0.162767 -0.306403 -0.363027 0.069429 -0.307630 0.001260 0.048580 0.189202 0.207504 0.069101 0.032426 -0.073120 -0.468132 -0.173076 -0.593466
278 -0.095389 -0.177679 -0.313760 -0.357809 0.142456 -0.294929 0.039365 0.044936 0.144364 0.207476 0.149432 0.025298 -0.026845 -0.451318 -0.183652 -0.595302
283 -0.115855 -0.200919 -0.271642 -0.404488 0.093693 -0.280330 -0.012861 0.051381 0.127698 0.227293 0.163620 0.018085 -0.089552 -0.404441 -0.136321 -0.600683
68 -0.151630 -0.155555 -0.291576 -0.374110 0.097911 -0.261517 0.005648 0.040967 0.138103 0.230642 0.122812 0.064033 -0.089710 -0.492686 -0.175459 -0.582869
81 -0.115125 -0.195642 -0.240266 -0.416432 0.131418 -0.305709 -0.006824 0.081763 0.145041 0.222229 0.214129 -0.001669 -0.003229 -0.460840 -0.149608 -0.559220
98 -0.095799 -0.229532 -0.268052 -0.351371 0.146476 -0.295281 0.049469 0.045467 0.181319 0.210030 0.216923 -0.000281 -0.022747 -0.434180 -0.157787 -0.583433
236 -0.129315 -0.150782 -0.318154 -0.358827 0.092076 -0.316245 -0.034170 0.038362 0.181240 0.197428 0.130183 0.046116 -0.100625 -0.417162 -0.170754 -0.602490
242 -0.116805 -0.167804 -0.319478 -0.386954 0.035050 -0.281711 -0.038437 0.102731 0.177161 0.233814 0.119437 0.057028 -0.075990 -0.412378 -0.163997 -0.583034
205 -0.060721 -0.173424 -0.298335 -0.389235 0.062736 -0.294824 -0.029752 0.053727 0.141384 0.224158 0.184451 0.089780 -0.129934 -0.394125 -0.194777 -0.610238
220 -0.126920 -0.234956 -0.245439 -0.379651 0.121604 -0.286893 0.025039 0.008353 0.198784 0.235446 0.199993 0.045705 -0.054700 -0.423809 -0.172085 -0.573995
113 -0.122276 -0.155517 -0.260659 -0.364433 0.087672 -0.278081 0.015437 0.052276 0.172957 0.194404 0.093972 0.045435 -0.081452 -0.477460 -0.190039 -0.611850
148 -0.155797 -0.184084 -0.266665 -0.406564 0.082880 -0.280304 -0.007772 0.057757 0.135809 0.273284 0.122089 0.112565 -0.092786 -0.429432 -0.165070 -0.569287
221 -0.153165 -0.191211 -0.331960 -0.357784 0.118441 -0.279079 0.004003 0.086416 0.130975 0.180866 0.092590 0.067767 -0.080282 -0.433776 -0.148032 -0.614623
203 -0.166440 -0.172350 -0.260618 -0.379528 0.112122 -0.312129 -0.008926 0.043028 0.167220 0.219088 0.135627 0.057404 -0.051286 -0.413143 -0.198998 -0.589552
244 -0.146448 -0.198745 -0.250011 -0.358057 0.056847 -0.322533 0.008104 0.001762 0.176213 0.264722 0.126120 0.010224 -0.073747 -0.456348 -0.184987 -0.551078
163 -0.106152 -0.213380 -0.245644 -0.388767 0.089673 -0.290555 0.024025 0.052190 0.143325 0.229517 0.105567 0.073055 -0.079763 -0.433191 -0.179278 -0.593800
216 -0.119041 -0.182440 -0.305660 -0.392072 0.053098 -0.325705 -0.012428 0.067111 0.100396 0.240473 0.102897 0.031784 -0.091486 -0.417823 -0.139076 -0.596384
96 -0.130515 -0.224842 -0.248122 -0.388607 0.103180 -0.302785 0.005507 0.003350 0.177217 0.265555 0.156591 0.090672 -0.068345 -0.403886 -0.158916 -0.576143
160 -0.128559 -0.175961 -0.272412 -0.353444 0.134991 -0.340574 0.020700 0.057014 0.156700 0.284915 0.167276 0.002863 -0.055510 -0.407668 -0.140116 -0.586074
251 -0.140642 -0.206049 -0.331568 -0.414986 0.088282 -0.292931 -0.013188 0.048543 0.138033 0.239052 0.148510 0.056825 -0.064918 -0.382176 -0.165303 -0.569870
70 -0.099182 -0.236004 -0.287380 -0.382757 0.086127 -0.314183 0.000389 0.042963 0.159680 0.235532 0.077845 0.080131 -0.100079 -0.421117 -0.187630 -0.575247
234 -0.074662 -0.196976 -0.259004 -0.389558 0.076798 -0.283045 0.024129 0.038111 0.135865 0.232390 0.125211 0.055008 -0.024944 -0.475337 -0.150112 -0.588444
7 -0.065626 -0.189241 -0.265742 -0.396006 0.080199 -0.287138 0.033782 0.029199 0.184706 0.244852 0.197805 0.055379 -0.084176 -0.443483 -0.100238 -0.572526
131 -0.119662 -0.213927 -0.269666 -0.393916 0.118288 -0.264184 0.017308 0.057510 0.130272 0.268746 0.136592 0.086609 -0.108223 -0.422534 -0.157230 -0.578746
281 -0.131628 -0.172669 -0.299475 -0.345646 0.095121 -0.345724 0.017829 0.011673 0.156921 0.202811 0.161039 0.100958 -0.078858 -0.457256 -0.189706 -0.555111
240 -0.082464 -0.205026 -0.268360 -0.357918 0.118893 -0.280794 0.017838 0.031160 0.176341 0.240674 0.128113 0.040420 -0.078931 -0.452296 -0.148489 -0.609197
86 -0.074424 -0.231525 -0.227013 -0.369327 0.093803 -0.264200 0.024580 -0.010912 0.184826 0.288905 0.163335 0.083612 -0.064002 -0.471329 -0.156555 -0.562468
265 -0.108024 -0.199923 -0.309063 -0.386216 0.059021 -0.336575 -0.013520 0.042878 0.176863 0.184256 0.157491 0.061778 -0.084526 -0.405145 -0.139700 -0.582939
272 -0.137463 -0.170273 -0.343202 -0.367714 0.095976 -0.281426 0.024557 0.057401 0.167336 0.210831 0.136226 0.053135 -0.056624 -0.412077 -0.196627 -0.581053
224 -0.128820 -0.195140 -0.292796 -0.374817 0.128602 -0.286950 -0.011770 0.073616 0.122008 0.177083 0.113310 0.102917 -0.094035 -0.441298 -0.160121 -0.596380
274 -0.130842 -0.173720 -0.286287 -0.371466 0.098832 -0.316498 -0.008435 0.060484 0.131487 0.231510 0.096945 0.070071 -0.071874 -0.464323 -0.125824 -0.589188
255 -0.095071 -0.194190 -0.274208 -0.342517 0.098389 -0.311009 0.003234 0.095898 0.118472 0.238296 0.121134 0.058072 -0.076986 -0.478418 -0.194412 -0.575633
109 -0.140224 -0.172059 -0.282408 -0.353847 0.124547 -0.265918 -0.000914 0.047700 0.132711 0.269010 0.169618 0.041741 -0.091027 -0.415443 -0.217629 -0.599298
191 -0.148898 -0.150937 -0.280893 -0.395448 0.138307 -0.311779 0.024973 0.048790 0.136596 0.189899 0.152150 0.026289 -0.044030 -0.468628 -0.135857 -0.575786
141 -0.096285 -0.169481 -0.261916 -0.382539 0.122499 -0.291190 0.013234 0.125319 0.136606 0.219449 0.171114 0.048573 -0.093720 -0.439259 -0.134701 -0.607134
152 -0.141104 -0.209064 -0.334670 -0.402763 0.072452 -0.258174 -0.060322 0.047078 0.157253 0.190182 0.099973 0.087018 -0.062350 -0.414383 -0.166556 -0.590880
25 -0.135868 -0.183921 -0.335507 -0.349944 0.049849 -0.267417 -0.053340 0.030388 0.196748 0.233522 0.101799 0.032252 -0.080689 -0.403301 -0.217968 -0.603131
130 -0.130333 -0.225528 -0.272292 -0.369998 0.088049 -0.310058 0.049213 0.051301 0.170430 0.245213 0.125485 0.068235 -0.078199 -0.425906 -0.188231 -0.571590
168 -0.098560 -0.194726 -0.309555 -0.382975 0.077238 -0.278652 -0.024292 0.059343 0.134779 0.285049 0.088415 0.079482 -0.063776 -0.432463 -0.180840 -0.581774
247 -0.074609 -0.223846 -0.322589 -0.359413 0.022870 -0.295047 -0.008440 0.035238 0.148865 0.263350 0.120723 0.045270 -0.090521 -0.435157 -0.170629 -0.568867
74 -0.132142 -0.221245 -0.275459 -0.421102 0.073954 -0.266423 -0.014700 0.065515 0.146620 0.220785 0.159676 0.066642 -0.088939 -0.421776 -0.166910 -0.586547
38 -0.106797 -0.197913 -0.254559 -0.383632 0.088342 -0.290087 -0.003577 0.037443 0.198944 0.228296 0.140975 0.063507 -0.034153 -0.447801 -0.228884 -0.563972
231 -0.151608 -0.193546 -0.259817 -0.402708 0.116562 -0.306903 0.004105 0.058898 0.175867 0.263272 0.167068 0.049771 -0.111953 -0.417253 -0.196415 -0.537754
34 -0.140905 -0.223150 -0.228121 -0.346724 0.137784 -0.311517 0.037249 0.019118 0.161638 0.248100 0.161163 0.080961 -0.060619 -0.434545 -0.153939 -0.599691
82 -0.112617 -0.186361 -0.303580 -0.390286 0.040239 -0.288660 -0.015138 0.042126 0.141307 0.230551 0.069792 0.082963 -0.043690 -0.480561 -0.214247 -0.558582
45 -0.080544 -0.177366 -0.328611 -0.422191 0.071732 -0.330366 0.014394 0.103379 0.150875 0.219639 0.091274 0.057414 -0.053577 -0.434997 -0.193950 -0.531474
195 -0.084151 -0.214991 -0.255356 -0.389643 0.085540 -0.288096 -0.027347 0.063785 0.138974 0.248263 0.108951 0.089766 -0.090773 -0.436376 -0.148728 -0.590716
213 -0.051341 -0.222388 -0.323947 -0.363801 0.108464 -0.263178 0.052652 0.041872 0.195186 0.241912 0.131285 0.048381 -0.046601 -0.416531 -0.156148 -0.607383
136 -0.127702 -0.214464 -0.273848 -0.403108 0.101951 -0.271648 0.019866 0.070084 0.155523 0.233491 0.071458 0.078025 -0.065289 -0.471525 -0.172951 -0.567080
56 -0.166347 -0.174778 -0.304912 -0.369270 0.113795 -0.293442 -0.002979 0.062461 0.117753 0.226513 0.113183 0.062323 -0.131537 -0.410064 -0.188741 -0.594895
111 -0.076409 -0.167052 -0.294656 -0.396332 0.124448 -0.241656 -0.042978 0.036689 0.144352 0.235972 0.159617 0.032715 -0.089357 -0.453030 -0.193184 -0.580217
264 -0.088402 -0.206848 -0.284144 -0.374870 0.085100 -0.317240 0.004018 0.067032 0.170125 0.254387 0.181285 0.050994 -0.056016 -0.429036 -0.101219 -0.577025
259 -0.112170 -0.184189 -0.254349 -0.390374 0.073407 -0.311363 0.027458 0.025042 0.190369 0.207625 0.108118 0.043926 -0.115581 -0.407028 -0.132510 -0.614354
176 -0.107520 -0.220062 -0.327420 -0.411197 0.073590 -0.276509 -0.009413 0.001433 0.185899 0.226029 0.120233 0.040626 -0.120441 -0.410877 -0.151128 -0.573791
39 -0.139866 -0.174411 -0.332800 -0.376075 0.132195 -0.277635 0.010299 0.082304 0.132803 0.205851 0.133520 0.052180 -0.069988 -0.443313 -0.167228 -0.578483
252 -0.142887 -0.219867 -0.252868 -0.356659 0.149945 -0.325202 0.012376 0.076484 0.177678 0.226850 0.151437 0.048201 -0.046321 -0.419087 -0.104140 -0.576999
48 -0.136653 -0.191460 -0.308045 -0.379813 0.036739 -0.262925 0.003469 0.011778 0.141293 0.225165 0.104984 0.067472 -0.056102 -0.433789 -0.146993 -0.622405
46 -0.138427 -0.208303 -0.269154 -0.369114 0.095746 -0.278442 0.027228 0.053060 0.130421 0.230230 0.164984 0.064988 -0.099892 -0.414236 -0.167675 -0.600378
106 -0.081569 -0.201361 -0.297648 -0.354550 0.055603 -0.289550 -0.001758 0.029351 0.153487 0.204135 0.160115 0.052250 -0.108478 -0.454874 -0.204051 -0.587950
140 -0.108758 -0.175797 -0.318241 -0.383659 0.113771 -0.320845 -0.002860 0.031416 0.163464 0.169238 0.151403 0.066631 -0.076609 -0.423175 -0.136293 -0.586514
267 -0.145290 -0.177958 -0.323482 -0.366639 0.035003 -0.320648 -0.031964 0.075502 0.146729 0.252212 0.129274 0.080723 -0.097823 -0.446092 -0.151922 -0.559362
180 -0.121714 -0.201457 -0.232066 -0.355913 0.114489 -0.290893 0.026215 0.055224 0.184272 0.245367 0.159646 0.050998 -0.109462 -0.401978 -0.187284 -0.602320
179 -0.143442 -0.173541 -0.313798 -0.406828 0.111151 -0.238233 0.008595 0.014602 0.186907 0.217859 0.169095 0.084818 -0.082940 -0.439375 -0.155197 -0.563569
270 -0.152834 -0.224222 -0.320672 -0.419875 0.095908 -0.320207 -0.010940 0.013842 0.161895 0.189925 0.105965 0.089250 -0.057417 -0.431524 -0.134912 -0.535437
208 -0.095815 -0.154980 -0.269318 -0.379636 0.102313 -0.303836 0.011309 0.017858 0.155262 0.246324 0.195302 0.067476 -0.088737 -0.448376 -0.178068 -0.571513
66 -0.092329 -0.222222 -0.287482 -0.409311 0.053852 -0.327994 -0.014400 0.068790 0.167629 0.237945 0.099856 0.006271 -0.019752 -0.430938 -0.140181 -0.580795
40 -0.137921 -0.178273 -0.300951 -0.358373 0.097826 -0.265573 -0.001536 0.069258 0.144587 0.192364 0.182703 0.029610 -0.060482 -0.415706 -0.182630 -0.625400
4 -0.133213 -0.146754 -0.315925 -0.341391 0.092103 -0.327493 -0.042452 0.077023 0.165294 0.210641 0.154182 0.072347 -0.056193 -0.451017 -0.150519 -0.579515
143 -0.081811 -0.239833 -0.268397 -0.357555 0.098583 -0.293629 0.018517 0.033448 0.185158 0.262177 0.093838 0.048458 -0.045901 -0.434430 -0.168583 -0.581147
230 -0.150796 -0.208354 -0.341428 -0.423237 0.058921 -0.233618 -0.031175 0.043785 0.138395 0.225810 0.072930 0.089809 -0.082553 -0.447813 -0.198158 -0.568719
266 -0.147573 -0.168500 -0.243728 -0.366153 0.088637 -0.313457 0.005808 0.040822 0.181785 0.258716 0.163180 0.022719 -0.043716 -0.447176 -0.123710 -0.582219
134 -0.095983 -0.205437 -0.246583 -0.345442 0.106677 -0.265104 0.010949 0.047708 0.201745 0.268353 0.186290 0.045696 -0.110898 -0.456425 -0.165644 -0.575499
53 -0.097983 -0.192001 -0.336624 -0.392755 0.120330 -0.281340 -0.009914 0.056810 0.121785 0.224256 0.109228 0.069365 -0.077014 -0.445136 -0.170654 -0.575268
49 -0.082749 -0.221643 -0.262420 -0.360706 0.109904 -0.286996 -0.005231 0.024561 0.175409 0.232228 0.159149 0.110205 -0.098692 -0.427309 -0.167268 -0.603652
133 -0.133320 -0.226175 -0.269613 -0.386968 0.113505 -0.283044 -0.002297 0.055354 0.163273 0.239671 0.188617 0.047295 -0.096634 -0.387716 -0.134900 -0.594860
17 -0.144867 -0.197645 -0.258995 -0.343160 0.088149 -0.303581 0.014218 0.049553 0.215808 0.284877 0.199656 0.101042 -0.032317 -0.424538 -0.193969 -0.565802
3 -0.140387 -0.226297 -0.243168 -0.376845 0.115748 -0.294609 0.048891 0.028894 0.135919 0.227702 0.142722 0.013398 -0.101147 -0.430588 -0.184170 -0.599514
73 -0.141893 -0.191615 -0.242922 -0.404841 0.149714 -0.314179 0.057088 0.023367 0.157690 0.225477 0.133053 0.025113 -0.048624 -0.368281 -0.157846 -0.615342
139 -0.108498 -0.224049 -0.273327 -0.373046 0.090102 -0.289529 -0.018935 0.055967 0.161740 0.235564 0.193680 0.018719 -0.106421 -0.401584 -0.142140 -0.593625
117 -0.078985 -0.226234 -0.283253 -0.386601 0.106618 -0.304820 0.002393 0.018180 0.168112 0.218237 0.127616 0.061517 -0.089591 -0.439756 -0.119707 -0.569895
190 -0.113568 -0.179822 -0.290045 -0.389587 0.114506 -0.243259 0.049078 0.040555 0.156518 0.203667 0.113754 0.044614 -0.099086 -0.411097 -0.205238 -0.606374
69 -0.120475 -0.205862 -0.323534 -0.383125 0.089654 -0.314314 0.001005 0.048184 0.170940 0.232188 0.157673 0.091194 -0.073322 -0.425083 -0.155668 -0.551674
262 -0.108116 -0.172740 -0.286702 -0.350737 0.098629 -0.275082 0.021480 0.090661 0.180406 0.266132 0.147324 0.023802 -0.056965 -0.428554 -0.163276 -0.611087
54 -0.130486 -0.232697 -0.312279 -0.370102 0.055096 -0.328483 0.016293 0.012014 0.161156 0.212239 0.074339 0.044470 -0.076529 -0.448237 -0.198365 -0.567091
156 -0.107739 -0.194108 -0.366335 -0.406227 0.116379 -0.284722 -0.010564 0.050158 0.143525 0.202601 0.082413 0.087144 -0.116353 -0.408054 -0.134388 -0.591329
284 -0.085195 -0.225474 -0.340168 -0.395474 0.072358 -0.311637 0.013338 0.047830 0.175592 0.226817 0.072824 0.033680 -0.085076 -0.407963 -0.193735 -0.571913
258 -0.105857 -0.215589 -0.271449 -0.392741 0.091377 -0.277691 -0.003585 0.061968 0.144841 0.236803 0.131087 0.096731 -0.080522 -0.427877 -0.179213 -0.589293
173 -0.131383 -0.171504 -0.273148 -0.325701 0.082610 -0.300153 0.009717 0.080332 0.139887 0.271841 0.134016 0.024570 -0.106827 -0.446920 -0.181280 -0.595610
127 -0.130371 -0.222329 -0.266631 -0.374441 0.105379 -0.302481 0.009711 0.024263 0.135495 0.208914 0.146206 0.049536 -0.055634 -0.446476 -0.110917 -0.599791
147 -0.078625 -0.196869 -0.242072 -0.373270 0.035529 -0.310201 -0.006422 0.045044 0.172165 0.266390 0.118190 0.024519 -0.085404 -0.439788 -0.169867 -0.592946
250 -0.155289 -0.185725 -0.263134 -0.388590 0.089064 -0.274573 0.014262 0.045083 0.152470 0.246271 0.156371 0.028300 -0.068953 -0.415843 -0.158667 -0.611076
120 -0.116171 -0.197113 -0.309587 -0.343184 0.080639 -0.288386 0.033604 0.083745 0.181535 0.242250 0.123996 0.029148 -0.035269 -0.425560 -0.165557 -0.599450
85 -0.137955 -0.236796 -0.243282 -0.401435 0.093273 -0.332163 0.010184 0.028414 0.150954 0.260089 0.179938 0.027541 -0.090088 -0.424096 -0.135558 -0.559831
60 -0.106500 -0.176325 -0.309479 -0.379950 0.062343 -0.270754 -0.002508 0.079750 0.157286 0.262343 0.109558 0.021153 -0.065448 -0.455848 -0.187491 -0.572845
83 -0.140886 -0.208048 -0.288770 -0.378546 0.120280 -0.257837 0.011163 0.018789 0.171583 0.261563 0.171114 0.062606 -0.093342 -0.442353 -0.148305 -0.556947
271 -0.131597 -0.145511 -0.342626 -0.399454 0.073368 -0.286866 -0.038203 0.059884 0.140765 0.184919 0.122146 0.075632 -0.069709 -0.415760 -0.193268 -0.584805
261 -0.097096 -0.227170 -0.336409 -0.400741 0.080549 -0.293040 -0.002439 0.035849 0.153222 0.239416 0.126336 0.023242 -0.063768 -0.394104 -0.146880 -0.587305
6 -0.101228 -0.226087 -0.294776 -0.351680 0.125639 -0.280130 0.020933 0.081339 0.160913 0.236529 0.162658 0.003625 -0.062122 -0.444314 -0.142739 -0.584472
76 -0.187738 -0.182805 -0.302774 -0.344288 0.141306 -0.308350 0.027868 0.070765 0.185037 0.222875 0.123708 0.079461 -0.070505 -0.422342 -0.153331 -0.580119
279 -0.120531 -0.206753 -0.286085 -0.362877 0.097236 -0.252993 -0.025939 0.034681 0.158150 0.258373 0.127389 0.082181 -0.066135 -0.433796 -0.172287 -0.600378
193 -0.100648 -0.205873 -0.275883 -0.348251 0.097800 -0.286272 0.037606 0.059937 0.172067 0.222839 0.108477 0.068017 -0.052127 -0.456943 -0.143778 -0.612048
36 -0.111474 -0.232666 -0.263136 -0.398322 0.113300 -0.301528 0.058547 0.041306 0.146070 0.264731 0.153499 0.036722 -0.098745 -0.398218 -0.167262 -0.578310
8 -0.125567 -0.220456 -0.260839 -0.351797 0.054416 -0.304185 0.013639 0.047504 0.172749 0.236285 0.119789 0.053357 -0.089660 -0.441295 -0.148234 -0.592314
184 -0.073773 -0.165464 -0.325588 -0.342896 0.046384 -0.313554 -0.021837 0.047994 0.194092 0.252399 0.144998 0.084389 -0.087411 -0.451972 -0.202925 -0.557161
35 -0.129098 -0.176418 -0.298642 -0.374036 0.029934 -0.287341 -0.001581 -0.032217 0.181945 0.239972 0.157232 0.046641 -0.073310 -0.431638 -0.184465 -0.577550
185 -0.101769 -0.170373 -0.269727 -0.348962 0.079205 -0.280428 0.040540 0.041007 0.177983 0.270869 0.190468 0.027606 -0.041818 -0.467504 -0.187378 -0.560448
181 -0.107589 -0.225936 -0.279886 -0.396451 0.044444 -0.289904 0.020008 0.049535 0.112616 0.232840 0.151196 0.071061 -0.072545 -0.424701 -0.123901 -0.592112
67 -0.124356 -0.157038 -0.293894 -0.368950 0.105568 -0.290901 -0.030265 0.045628 0.152216 0.200467 0.130152 -0.007065 -0.091062 -0.446130 -0.175376 -0.594557
269 -0.095514 -0.213329 -0.286972 -0.403208 0.085868 -0.308649 0.029327 0.055021 0.119478 0.189519 0.138052 0.032699 -0.104483 -0.406752 -0.182637 -0.590045
89 -0.128730 -0.191377 -0.280549 -0.391553 0.112191 -0.235660 0.038313 0.045634 0.146389 0.254407 0.141258 0.073139 -0.117445 -0.443751 -0.122764 -0.592790
10 -0.117817 -0.202887 -0.290459 -0.380709 0.090372 -0.273132 0.028497 0.022515 0.198419 0.223242 0.176202 0.071323 -0.098049 -0.395637 -0.165352 -0.576245
114 -0.119965 -0.223253 -0.288717 -0.411194 0.072631 -0.300575 -0.041184 0.059578 0.169617 0.222670 0.137033 0.065991 -0.093750 -0.384438 -0.133564 -0.582831
16 -0.132072 -0.171258 -0.274080 -0.370530 0.088180 -0.321142 0.043278 0.041073 0.178059 0.238062 0.135487 0.062342 -0.072363 -0.412867 -0.115156 -0.610142
